[{"weights":[[-0.22367323441904818,-0.6558250688064609,0.9774858227943741,-0.4568432377785083,-0.3673935156510346,-0.26948445197711024,0.37719410401525355,0.14250743387569065,0.2765170346199797,-0.9332701621323589,0.13983565013047805,0.4936471341757289,0.3960918453331357,-0.18317189340764117,0.8903496673170626,-0.4703224052532611,-0.5755895335103121,0.6076881218175323,-0.9416341810598612,0.9233635035365872,0.7171378531605412,-0.9316968570716899,0.1729813267636071,0.1568675139500859,-0.9171786227612744,-0.023964671057249864,-0.6671148865257766,-0.7750942011011994,0.5091595570500675,-0.9688954668863514,0.25853404752294273,0.3908059754508033,0.6539863950149645,-0.8578618881234426,0.8832383607871712,0.07193527560318014,0.1247651500185809,-0.07322300930623826,-0.9838864847240489,-0.06304621382694675,0.032027231439641035,0.3853266859858695,-0.7065553508997511,0.2677023919300534,0.8144644345578536,0.7083650982817269,-0.1888159911647722,0.6663535611736788,0.9440234399313792,0.7482266299017128,0.7920667551889449,0.8998076408585489,0.36632268938851786,-0.19400018929305896,-0.94894318351802,0.7967129986228398,0.055895898798096644,0.41288967991035186,0.7434723198677122],[-0.03779409746429119,0.5656114634118585,0.41789556126479077,-0.099168048858155,-0.8573601651531428,-0.46389948060125064,-0.7990373504066015,-0.8766621770975607,0.5103337384143005,-0.15366491413523153,-0.3858249451906246,0.4441234116125763,0.5592182146512756,0.6187161658866618,0.29036395023559036,0.26069683886459716,0.8794488803464902,-0.5568739385663768,-0.163782206244514,-0.2810654493830458,0.4018570226588416,0.41612848100254785,0.1306640119660989,0.6730036622566706,0.1356303317045915,0.3487822821931561,0.6521575287962866,-0.12590549863154,-0.9676457114992325,-0.5790313797624258,-0.1299218250468981,-0.7202950777081056,-0.18092581232241023,-0.4096877569489099,-0.6912364914397815,0.04734680989909368,-0.295420173886231,-0.3997541508127396,0.1922754183433517,-0.4461782996825847,-0.1881657302525015,-0.20363324424115703,0.6085044889698492,-0.3272366541734917,-0.7534619528428195,0.6570703066293078,-0.2465794869781548,-0.5116974013722408,0.35916351064805685,-0.08233382733307826,0.2289524728011112,0.8566172175254032,-0.565043621436697,-0.10554107236099441,0.553726080053283,-0.8270545874307882,0.42156634220337597,-0.40126802077566626,0.8773522461841272],[0.656314470733965,0.702001807818919,0.6730942390817101,0.2975284251503585,-0.2995588391980204,-0.31971224333864834,-0.26245562652012344,-0.7785241406630881,-0.8504723747134735,-0.9592780970977353,0.45164468895330967,-0.9395719645895029,-0.8918193097491807,-0.9902710808889972,-0.5637237474368042,0.9759890530404582,-0.37730538420596416,0.7353774136636555,-0.863831638383741,-0.3144079218174727,0.17332430231844587,0.27430638945268293,0.5962498126426417,0.35824913027586747,-0.6672806040285473,-0.13457944100154262,-0.9110972143767255,0.5441383421469206,0.4231406384438754,0.9562262389028615,0.036435075937879535,0.6727029465524563,-0.026851611085249694,0.7062889197149034,-0.6335867568214031,-0.39908463468696054,0.5533024416027705,-0.5855789788050116,-0.9772887367820402,-0.5114118965226242,-0.2507742908619117,0.764917016510757,-0.9939644943953068,0.9491002786140661,0.167598587266091,-0.49886699377807187,-0.13162023346550744,-0.49854339735753106,0.6487004719679386,0.9892159530201972,0.9817626031446942,0.7558059427355359,0.13742293092684288,0.5227758174415418,0.6105231319996389,-0.6158589740361942,-0.9913673418751727,-0.48244418012456736,-0.6703480695443562],[-0.7345639970564171,0.6190516398886265,0.2973628722077257,-0.8009091762030027,0.6513334327993487,0.8790605614203941,0.7236878867050578,-0.8858432446417353,0.7878485237203674,-0.7865142961108686,0.4928258067223339,-0.3501870712103923,0.21777950958402714,0.7957983436717639,-0.6500922860961509,0.8384199092236262,0.5532204125313875,0.07721272528839651,0.8086933276447681,-0.5439254455203337,-0.18601925128657482,0.2738077504188121,-0.9830647026313006,0.2252882103807763,-0.6449971911055481,0.7130735915966833,0.7927208126161349,-0.23033276506445466,-0.38691168134944687,-0.08141652363002616,0.6625962100311977,0.20754342879558152,0.6070104874001123,-0.5121129962446673,-0.6090260131367171,0.3236919986911766,-0.9076810919631777,-0.13209180752013094,0.7989760660654748,-0.2198906144708439,0.07168246498213349,0.2833491104639454,0.022301122265975915,-0.32820643169071273,0.781873273850811,0.9573176609119805,0.29921334313119896,0.8404301920341588,-0.982387468572848,-0.7362962289938575,-0.051287089535116515,0.5638812934158792,0.7675705733625993,-0.42129555344430325,0.8104079510889475,0.7299703217811713,-0.741476033102727,-0.15363489074949044,-0.31415626914716777],[-0.9662749173110585,-0.3063132657472982,-0.6423670189782795,-0.15394613772849253,-0.3276700754527706,-0.4955419350021677,0.9660901848260488,0.5943328059857773,0.13181010577300722,-0.07132812396352928,0.0349236451786048,0.7997722821030746,0.9989112894798351,0.6520764333747944,-0.5070633704746554,0.9278357277383653,-0.17001327508939545,0.9730785791318202,0.338613329365026,-0.6053084383053757,-0.982304744856975,0.3493754466854766,-0.7619081283842339,-0.010420132038089447,0.1711828608318824,-0.19132004980390716,-0.8406129125025918,-0.10631632665133672,-0.17023156935794104,-0.042972711678161746,-0.17765367679873978,0.3573934421961382,-0.9892643041598843,0.8930486130407789,-0.12135541121927651,0.2955730333235487,0.9437542384789865,-0.04110547188419522,-0.9808439016267956,0.5265874226231568,-0.3011153709305747,-0.6654701970850252,0.15622589025540323,0.053074180983748276,-0.5427872690418192,-0.6274403147452976,-0.060435908416093476,-0.7344085070748327,0.26589893895131067,0.15425159063617722,-0.7747435147054853,0.8821612591905137,0.5237293683111779,-0.07451074795494739,-0.759521324450743,-0.4892863837256438,0.2658774830614894,0.3535106912347985,-0.6743981478693031],[0.2658839585300663,0.6742523591112395,0.16285178122761756,0.800182973012644,0.05568646414286604,0.6227480610645482,-0.9176120142324993,-0.4604643581464207,0.13369938600626918,0.4717291374235266,-0.042536653626721765,0.05926519769794791,0.6070647692981037,0.8134726604829228,-0.29626786734881416,-0.9381132815923685,0.6205572062982341,-0.2913082668546694,0.3269115053133831,0.4426782836945098,0.023903744756770484,0.9173454780153614,-0.7679659315921672,0.3322466037921521,0.46331025331846787,-0.14680564926360473,-0.31552895663630776,-0.3124014412355762,0.16766419532915822,-0.1600907678094341,0.24564060710500035,0.22376785459012183,0.07151378220474358,-0.2370191922732119,-0.4251471449580766,0.5037133472656656,0.4002874445347988,0.5499047535933705,-0.47093696249172123,-0.8724175490795458,0.9023179119241143,0.03891263139983958,0.8008092800332818,0.44437667224919664,0.8901178087651378,0.20468922261105083,-0.4564723537249986,0.8548715587714975,-0.4614432043707717,0.20641212529473352,0.78759985634188,0.5050739628417209,0.40006890079243607,-0.8185841099632756,-0.4329238118645231,-0.5756169762487386,-0.6746720453821413,0.4383386745358102,0.4705954021886112],[0.7169367968002203,-0.8841933224680505,0.44074497882836616,0.9815119012305604,-0.001733487415849666,-0.659164032178998,-0.940064352193478,0.5415367869227072,-0.9293523319631494,0.7220692785605576,0.08953794657895098,0.535217661043448,0.2805466466786233,-0.06457541806870992,-0.8914037107420472,0.8564750179548577,-0.3134973723439898,-0.024142318786930295,0.4408902110033672,-0.3778792515869638,-0.7294826904016471,0.5653204073813283,0.08735737374387642,-0.05699986612685293,0.11570679893247315,-0.8965919061765477,-0.4792235481015801,-0.8486198513237599,-0.5131145868407001,-0.034386554110819256,0.5092074718425792,-0.021159685646557458,0.9022970936246233,0.16149904820707994,-0.44879934063662374,0.6967873676385832,0.26714974413453896,-0.9769285973539013,0.889055327545837,0.009557591757684891,0.3581034812516981,0.9959778371971686,0.26257632971951583,-0.09545798864546029,0.29355632493105177,0.4246695935751381,0.06521907036134866,0.1926404597866962,-0.6258468040427894,0.5662537805889425,0.9055412006271883,-0.742276642999754,0.7830892122947253,0.6426403732156156,0.518623579395646,-0.9149210203773093,0.2737482595687948,0.560017450039636,0.8587764588040936],[-0.5259568477644767,0.7610712500016055,-0.3482671839440239,-0.6988199757889326,0.4125849615421273,0.9712420535048163,0.03167052248270896,-0.9407116176641679,-0.6968620667812804,-0.5596041446367632,0.5664505568079443,-0.8986244237523775,0.46914660227845095,-0.9828356031538275,0.850235539409655,0.8639807705201084,0.46047609364371733,-0.350280039666794,-0.34402138536994276,0.8245115069022804,-0.049803551407078706,0.36153632256542956,0.18151074728323557,-0.24529019565982213,-0.6762218784420175,-0.5460957400993169,-0.27132623067472417,0.11085031314272076,-0.975660606838155,-0.8242021541333342,-0.3819731822930392,0.765384130540897,0.43017914328016693,0.12052985422510654,0.18927517559380447,-0.8095737680663395,0.42328502127607925,-0.9060686505820101,-0.2371642928955855,0.6758713080914347,0.16745308254455615,0.1036555307559508,-0.09408988442966093,0.6866202739296676,0.8176170109656784,-0.8402888372440172,0.4035347247908907,-0.5357409448082506,0.07133221804906209,-0.6046122304907551,0.4041931703749917,0.34393243225784365,-0.4959122247651493,-0.229072438386543,0.7682365779680989,0.12797834034988353,0.35444232767052775,0.9124831649965688,-0.7186597608352638],[0.028110820187089658,0.014883792479679192,-0.7599968642208268,-0.9355958482412783,-0.5565239952200041,0.47683585990071853,0.3224966940941816,0.14212430128208453,0.5223774851035219,0.3216836394300242,-0.6405724827777228,0.7021671224412436,-0.36427005497252574,0.6348896864631262,-0.3283102904601318,-0.5653796912079627,-0.9064015358327533,0.26744380442387183,0.06329778009560116,-0.7730652772093816,-0.11844518244985514,-0.13303208059364646,0.35540668976318046,0.3278113402807372,-0.8014046867469931,0.6693218696823979,0.6652519943940061,0.3454338728825208,0.5164076639641555,-0.7768164996524274,-0.12312610567489135,0.142328976288838,0.07951936885165356,-0.22067463784139885,-0.9704148972947009,-0.23446416672693515,0.8329738459241265,0.48835044157009033,-0.41896602672978545,-0.21146713178391918,0.10799732143948981,-0.8157948646560831,-0.764991160182551,-0.3636552459084923,-0.3942871066415692,0.5411812902852575,-0.5716403144421547,-0.8519919203808288,0.18319003595126726,-0.1211049649981013,0.4439595638495697,-0.029093812296988153,0.9748895693201396,-0.536415401986402,-0.4551883916007604,0.6417483508637118,0.6458104301165857,0.8793663829645517,-0.6265601982230413],[0.5329106109782968,0.10504016889551582,0.8911561326489881,0.8615144650928965,-0.8016574334316104,-0.553470181291102,-0.527134630121914,-0.8982977786593067,-0.7092225358559752,-0.6524138411004097,-0.03925455758794638,0.11806508302439056,0.460072829412256,-0.1864408572518348,0.9375560681824173,0.05342151872785794,-0.7853471285822597,-0.7960754561162386,0.04721868728231704,-0.8829701962680041,-0.49348526434670603,-0.7077626182890044,-0.3318845776609871,-0.9177974514554688,-0.7116044797754473,0.2726553795289439,0.9487584824558188,0.3709454433328001,0.4329874230598416,0.34331338470928197,-0.9617724190712389,0.7110410817773272,0.5315046570611792,0.5902161193335012,-0.572631067420245,-0.9012923374749469,-0.5364816177062353,0.06179611395813045,0.2006709920959413,0.0458659190684485,0.7627754191195295,-0.19680571304592154,0.16506196772772985,-0.5516946813523533,0.25490070589173563,-0.8293026546500559,-0.7511225316318175,0.02662599963560619,-0.013648060194936473,0.7855272531921063,0.6616633669391405,0.8776537779909719,-0.6049909382993877,0.22459992617422753,-0.818627900416731,-0.9976249823627499,-0.5877592230730555,-0.5039224513202634,-0.2988158888353334],[0.45595428057857035,0.5824973965787403,0.3674835859363845,-0.6650642609677733,-0.01675844933188575,-0.7315417627358713,-0.18310541744672926,0.9646879897557965,-0.14081692874934193,-0.4057898870231549,0.5304314811495969,0.22227885164414207,0.8281277917220591,0.43398899026030047,-0.29083656586197937,0.22409902689875394,-0.262439109375481,0.4194074789134885,0.8333106054300297,0.2712843397151612,0.6182841129606065,0.6630582150746629,0.1563056856290168,-0.16894360375985062,-0.25322064574053904,-0.27710952475241646,-0.8396312970756394,0.688460961093424,0.7874813455486722,0.6789707934797342,0.6254310330067112,-0.08379591663578356,0.02378133522560444,0.8020103135107426,0.5589725097501308,0.484216597742275,0.19108411857420537,0.13167946537378517,0.6638526584382218,-0.8415686335480312,-0.7764711714023211,0.6843468838024591,0.8932934341253222,0.5363254262247328,-0.9610676299395122,0.5042150028441132,-0.5671751619409302,0.31237681218543023,0.6991985532300431,0.5958670850441212,-0.3974454489027923,-0.26761697563637576,-0.3731686466992248,0.6681899652085403,0.5628851183860384,0.6515783806581261,0.08410276627400948,-0.41219852623108855,0.8539703308504683],[-0.4183688349975989,0.3498144261354539,0.47313650905408666,0.029019732027898426,0.25152364283219786,-0.9104590034657516,-0.881905164241864,0.7293326493287482,-0.6042771629286652,0.8789153392352451,0.3821471806625738,0.03574485049863485,0.16307345093432257,0.50275321313122,0.4735259787192554,-0.9089924177375677,-0.7282472644481355,0.6839795102218675,-0.32859739595518533,-0.7337842877632734,0.5971102077091721,0.25729282067845305,0.9813188473747037,0.3715584156823988,0.5649394042380438,-0.06608484658344871,0.7131379587122257,-0.8091994033351877,0.7131448019500797,0.4742904897488813,0.7504133060006106,0.41777847125891676,-0.9450680441354831,-0.7035139580153587,-0.14236490499140508,0.5142628046697357,-0.7451139570114738,-0.1767440959110096,0.7933835203797863,-0.7869473475405306,-0.1370700441881041,0.5756553976029288,-0.4561081209503435,-0.021099819343542547,-0.9068130969564236,0.42813676634979925,-0.5785607017414196,-0.3691208772490506,-0.9202495971533595,-0.21566814317625238,-0.10767647959389626,0.7458078350391428,-0.6215711560179782,-0.3437741426979477,0.5689889596396649,0.7651042762845117,0.3565409254620453,-0.43956302484164955,-0.6611304865250174],[-0.5843178388556503,-0.9862410727952784,0.42041599858163115,0.8709953682790637,-0.34269331530056824,0.4772002755593847,0.1020470598953469,0.4113796993152885,0.8194653552630855,0.20181102081899716,-0.955744157913266,0.6963630368591087,0.8962631655774416,0.16454237567450525,-0.236278051077778,0.3077696148924596,-0.20113691604597417,-0.9551466064568375,-0.7041312994994695,0.6630804433844848,0.46761948881014725,0.13156580908331494,-0.5232927593989005,0.14355021672996715,-0.10648873725721764,0.009099335566405298,0.7283037140070794,-0.5322915540934272,-0.23925101056882347,-0.906406088473316,-0.8562020128698853,0.8535673514585289,-0.9285013768788508,0.44694575418035565,0.056758455294998233,-0.9248799756903789,-0.232256430566953,-0.5145382080398391,0.7123655148609807,-0.6550863299816496,-0.0867606364860467,-0.5967174960613841,-0.4900293292107787,0.7397283729775521,0.6765330521784281,-0.6950847663075064,-0.7795784644207258,-0.975375838492988,0.003863483138745627,0.15794040955141386,-0.8103427774648391,-0.06209946750985473,-0.16644238403529443,-0.8352916169306936,-0.9928087002601105,-0.4279939264161683,-0.29538915686023004,0.7935609729779698,0.3050997487081597],[-0.7740344121604605,0.9317247903872796,0.6764590003660418,0.4366451708741945,0.8423889974605998,0.9703325331336052,-0.19306625364269125,0.18608809697502848,0.8900470747223403,0.09385846019385613,-0.4526044763636399,0.644434713228073,0.03292895886474967,-0.0451209131187611,-0.4655414275798353,-0.895407867432362,-0.4043676804578864,-0.5979262719268064,0.13161514659607,0.49351551804353644,-0.42931642476661147,-0.6441984514924535,0.11240837992808239,0.5856011892798476,-0.461248874306172,0.5943260808255852,-0.09048772179248155,0.9190386066742315,0.33269480928751594,0.10692472997895441,-0.030578289951862292,-0.6042314143223233,0.7609016148911569,0.16230565965710086,0.8885282316192356,-0.7675346203741931,-0.4007852964232299,-0.6404253249461378,0.6011389924959429,-0.6484842765691574,-0.6806178605853097,-0.6480240439323901,-0.9064614641643072,0.9292993098780837,-0.38454158249992965,-0.8456836529478609,-0.7228258862245087,0.9698409555474596,0.07715471715193223,-0.69731394621392,0.8976555743444277,-0.2923091512130176,0.10410073877036652,0.6043741950815136,0.004707992620464285,0.9481667770151903,-0.42619533770789064,-0.3849132074225148,0.1754974292124314],[0.7345552507617663,0.36466643853823544,-0.3229081276722079,-0.21118793176664963,-0.4439870217236339,-0.4067541582487737,0.1702142190861602,0.8898835491528998,0.9915436755580487,-0.4255902110195642,0.25389315846922766,-0.5633714514739583,-0.12672663446659804,-0.26654481350154957,0.19168893498109663,-0.08417876035178051,-0.7511236794099279,0.5799871989283458,0.9450376453486944,0.467305787938348,0.7968494061837492,-0.7290412220120639,-0.7404814004897298,-0.8929626809757718,-0.6807801683002368,0.541375368966547,0.7283194518463363,-0.7907144997896913,0.5598492625614937,-0.4070640592625572,-0.9955576538427522,0.1696645903992673,0.6303075007585988,0.1065618477060768,-0.8118008923739068,0.15887952026733054,0.04869915031034955,-0.3380348022669246,-0.3222709854627117,0.1994194048530693,-0.5065791755285092,0.8141268031755411,0.6742932808790951,-0.7508248969730882,0.984359313111312,-0.7682926657603149,-0.9877286238861065,0.5509693275550032,0.7788176877806665,0.4593082964308106,-0.7062109737885705,0.921470741402838,0.2744816423309935,0.6817182317111934,-0.1743766983908892,0.41890908353528644,-0.8293180969471972,0.016084464533973497,0.5759948179386445]],"biases":[0,0,0,0,0,0,0,0,0,0,0,0,0,0,0],"activation":"relu","inputSize":59,"outputSize":15},{"weights":[[-0.2595326700730536,-0.9110094047143773,0.2621643433125507,-0.4333498753358884,-0.7695348370218467,-0.47594592820674153,0.4469136962417959,0.2885752607261107,0.8629577045251773,-0.20626659774179523,0.13472845668329647,0.4708284376625136,-0.3765352994352198,-0.3017054396608887,-0.45215384596715613],[0.7088849002133175,0.18148566372766117,-0.5310765639738748,-0.9893971286784309,0.11091868898180457,0.037451278078289185,-0.5933825383338229,-0.19459513591971733,-0.28075288324941505,0.7076065257026569,0.6167000014787365,-0.8051576497298742,0.7011449483686016,0.998078166095651,-0.757508224371306]],"biases":[0,0],"activation":"softmax","inputSize":15,"outputSize":2}]